booster[0]:
0:[f0<14.5] yes=1,no=2,missing=1
	1:[f0<3.5] yes=3,no=4,missing=3
		3:[f15<0.5] yes=7,no=8,missing=7
			7:leaf=-0.148051947
			8:leaf=-0.0387096778
		4:[f5<0.5] yes=9,no=10,missing=9
			9:leaf=0.218181834
			10:leaf=0.0500000045
	2:[f0<25.5] yes=5,no=6,missing=5
		5:[f0<23.5] yes=11,no=12,missing=11
			11:leaf=0.300000012
			12:leaf=0.100000009
		6:leaf=0.4909091
booster[1]:
0:[f0<14.5] yes=1,no=2,missing=1
	1:[f0<4.5] yes=3,no=4,missing=3
		3:[f3<0.5] yes=7,no=8,missing=7
			7:leaf=-0.0914453045
			8:leaf=-0.0131935943
		4:[f7<0.5] yes=9,no=10,missing=9
			9:leaf=0.0182212479
			10:leaf=0.109846078
	2:[f0<21.5] yes=5,no=6,missing=5
		5:[f0<18.5] yes=11,no=12,missing=11
			11:leaf=0.236262143
			12:leaf=0.0995971188
		6:leaf=0.334925264
booster[2]:
0:[f0<15.5] yes=1,no=2,missing=1
	1:[f0<2.5] yes=3,no=4,missing=3
		3:[f7<0.5] yes=7,no=8,missing=7
			7:leaf=0.016816074
			8:leaf=-0.0651524886
		4:[f5<0.5] yes=9,no=10,missing=9
			9:leaf=0.145469815
			10:leaf=0.0156668089
	2:[f7<0.5] yes=5,no=6,missing=5
		5:[f0<25.5] yes=11,no=12,missing=11
			11:leaf=0.102161936
			12:leaf=0.301811099
		6:[f1<0.5] yes=13,no=14,missing=13
			13:leaf=0.354584962
			14:leaf=0.0745853335
booster[3]:
0:[f0<7.5] yes=1,no=2,missing=1
	1:[f1<0.5] yes=3,no=4,missing=3
		3:[f3<0.5] yes=7,no=8,missing=7
			7:leaf=-0.0521424823
			8:leaf=0.0319381505
		4:[f9<0.5] yes=9,no=10,missing=9
			9:leaf=-0.275886595
			10:leaf=-0.026614245
	2:[f17<0.5] yes=5,no=6,missing=5
		5:[f7<0.5] yes=11,no=12,missing=11
			11:leaf=0.101039328
			12:leaf=0.32950753
		6:[f0<25.5] yes=13,no=14,missing=13
			13:leaf=0.0512602851
			14:leaf=0.299225241
booster[4]:
0:[f0<15.5] yes=1,no=2,missing=1
	1:[f3<0.5] yes=3,no=4,missing=3
		3:[f9<0.5] yes=7,no=8,missing=7
			7:leaf=0.116585955
			8:leaf=-0.0396881327
		4:[f0<2.5] yes=9,no=10,missing=9
			9:leaf=-0.0224380232
			10:leaf=0.0473645963
	2:[f7<0.5] yes=5,no=6,missing=5
		5:[f3<0.5] yes=11,no=12,missing=11
			11:leaf=0.0131899742
			12:leaf=0.147177592
		6:[f11<0.5] yes=13,no=14,missing=13
			13:leaf=0.0443481281
			14:leaf=0.287665188
booster[5]:
0:[f0<15.5] yes=1,no=2,missing=1
	1:[f0<5.5] yes=3,no=4,missing=3
		3:[f17<0.5] yes=7,no=8,missing=7
			7:leaf=-0.0390190892
			8:leaf=0.00215409603
		4:[f15<0.5] yes=9,no=10,missing=9
			9:leaf=0.174523413
			10:leaf=0.0162581932
	2:[f0<25.5] yes=5,no=6,missing=5
		5:[f17<0.5] yes=11,no=12,missing=11
			11:leaf=0.265140712
			12:leaf=0.0486023799
		6:leaf=0.258978009
booster[6]:
0:[f0<20.5] yes=1,no=2,missing=1
	1:[f3<0.5] yes=3,no=4,missing=3
		3:[f7<0.5] yes=7,no=8,missing=7
			7:leaf=-0.0554748699
			8:leaf=-0.00138756714
		4:[f9<0.5] yes=9,no=10,missing=9
			9:leaf=-0.191883966
			10:leaf=0.0206670053
	2:[f19<0.5] yes=5,no=6,missing=5
		5:leaf=0.28615573
		6:[f0<25.5] yes=11,no=12,missing=11
			11:leaf=-0.042436935
			12:leaf=0.226437405
booster[7]:
0:[f0<9.5] yes=1,no=2,missing=1
	1:[f1<0.5] yes=3,no=4,missing=3
		3:[f7<0.5] yes=7,no=8,missing=7
			7:leaf=-0.0236230269
			8:leaf=0.0313738398
		4:[f9<0.5] yes=9,no=10,missing=9
			9:leaf=-0.197171092
			10:leaf=-0.0132655865
	2:[f17<0.5] yes=5,no=6,missing=5
		5:[f0<16] yes=11,no=12,missing=11
			11:leaf=0.0938562825
			12:leaf=0.232184678
		6:[f0<25.5] yes=13,no=14,missing=13
			13:leaf=0.026430551
			14:leaf=0.212138757
booster[8]:
0:[f0<15.5] yes=1,no=2,missing=1
	1:[f0<1.5] yes=3,no=4,missing=3
		3:[f9<0.5] yes=7,no=8,missing=7
			7:leaf=-0.221645385
			8:leaf=-0.0120617617
		4:[f5<0.5] yes=9,no=10,missing=9
			9:leaf=0.0633912832
			10:leaf=-0.00416752929
	2:[f7<0.5] yes=5,no=6,missing=5
		5:[f0<18.5] yes=11,no=12,missing=11
			11:leaf=0.146614462
			12:leaf=-0.0339907855
		6:[f11<0.5] yes=13,no=14,missing=13
			13:leaf=0.00591453677
			14:leaf=0.227830097
booster[9]:
0:[f0<25.5] yes=1,no=2,missing=1
	1:[f0<7.5] yes=3,no=4,missing=3
		3:[f17<0.5] yes=5,no=6,missing=5
			5:leaf=-0.0311955642
			6:leaf=0.0064683808
		4:[f5<0.5] yes=7,no=8,missing=7
			7:leaf=0.202532783
			8:leaf=0.00981177017
	2:leaf=0.195058763
booster[10]:
0:[f0<20.5] yes=1,no=2,missing=1
	1:[f0<18.5] yes=3,no=4,missing=3
		3:[f0<16.5] yes=7,no=8,missing=7
			7:leaf=-0.000612389995
			8:leaf=0.119606681
		4:[f7<0.5] yes=9,no=10,missing=9
			9:leaf=-0.167806104
			10:leaf=0.108886272
	2:[f19<0.5] yes=5,no=6,missing=5
		5:leaf=0.247982323
		6:[f7<0.5] yes=11,no=12,missing=11
			11:leaf=-0.0593689829
			12:leaf=0.188525394
booster[11]:
0:[f0<25.5] yes=1,no=2,missing=1
	1:[f3<0.5] yes=3,no=4,missing=3
		3:[f9<0.5] yes=5,no=6,missing=5
			5:leaf=0.137689859
			6:leaf=-0.0200341865
		4:[f0<9.5] yes=7,no=8,missing=7
			7:leaf=0.000856727769
			8:leaf=0.0541344099
	2:leaf=0.175746948
booster[12]:
0:[f0<25.5] yes=1,no=2,missing=1
	1:[f0<5.5] yes=3,no=4,missing=3
		3:[f15<0.5] yes=5,no=6,missing=5
			5:leaf=-0.0515057258
			6:leaf=0.00217757281
		4:[f15<0.5] yes=7,no=8,missing=7
			7:leaf=0.144030422
			8:leaf=0.00365675986
	2:leaf=0.161497742
booster[13]:
0:[f0<20.5] yes=1,no=2,missing=1
	1:[f0<18.5] yes=3,no=4,missing=3
		3:[f0<16.5] yes=7,no=8,missing=7
			7:leaf=-0.000308760995
			8:leaf=0.0914226323
		4:[f7<0.5] yes=9,no=10,missing=9
			9:leaf=-0.127957687
			10:leaf=0.0900867656
	2:[f19<0.5] yes=5,no=6,missing=5
		5:leaf=0.219179735
		6:[f0<24.5] yes=11,no=12,missing=11
			11:leaf=-0.0401855186
			12:leaf=0.0714072585
booster[14]:
0:[f0<21.5] yes=1,no=2,missing=1
	1:[f19<0.5] yes=3,no=4,missing=3
		3:[f9<0.5] yes=7,no=8,missing=7
			7:leaf=-0.225522488
			8:leaf=-0.00475756638
		4:[f7<0.5] yes=9,no=10,missing=9
			9:leaf=-0.012857941
			10:leaf=0.0195751898
	2:[f0<23.5] yes=5,no=6,missing=5
		5:leaf=0.109625086
		6:leaf=0.00411688676
booster[15]:
0:[f0<20.5] yes=1,no=2,missing=1
	1:[f3<0.5] yes=3,no=4,missing=3
		3:[f9<0.5] yes=7,no=8,missing=7
			7:leaf=0.118933506
			8:leaf=-0.0167850293
		4:[f9<0.5] yes=9,no=10,missing=9
			9:leaf=-0.101263329
			10:leaf=0.00781173445
	2:[f19<0.5] yes=5,no=6,missing=5
		5:leaf=0.195293218
		6:[f0<24.5] yes=11,no=12,missing=11
			11:leaf=-0.0438005999
			12:leaf=0.0608502589
booster[16]:
0:[f0<7.5] yes=1,no=2,missing=1
	1:[f17<0.5] yes=3,no=4,missing=3
		3:[f1<0.5] yes=7,no=8,missing=7
			7:leaf=0.0160933435
			8:leaf=-0.0506581292
		4:[f0<3.5] yes=9,no=10,missing=9
			9:leaf=0.0143424058
			10:leaf=-0.00876680482
	2:[f17<0.5] yes=5,no=6,missing=5
		5:[f7<0.5] yes=11,no=12,missing=11
			11:leaf=0.0134929344
			12:leaf=0.232017905
		6:[f5<0.5] yes=13,no=14,missing=13
			13:leaf=0.133278698
			14:leaf=-0.0179856177
booster[17]:
0:[f0<20.5] yes=1,no=2,missing=1
	1:[f0<1.5] yes=3,no=4,missing=3
		3:[f9<0.5] yes=7,no=8,missing=7
			7:leaf=-0.183769584
			8:leaf=-0.00290152011
		4:[f9<0.5] yes=9,no=10,missing=9
			9:leaf=0.160278291
			10:leaf=0.00145815255
	2:[f19<0.5] yes=5,no=6,missing=5
		5:leaf=0.178852245
		6:[f0<24.5] yes=11,no=12,missing=11
			11:leaf=-0.0290270038
			12:leaf=0.0541729629
booster[18]:
0:[f0<12.5] yes=1,no=2,missing=1
	1:[f0<11.5] yes=3,no=4,missing=3
		3:[f0<10.5] yes=7,no=8,missing=7
			7:leaf=-0.00131077727
			8:leaf=0.0625547245
		4:[f7<0.5] yes=9,no=10,missing=9
			9:leaf=-0.00664665783
			10:leaf=-0.185577571
	2:[f11<0.5] yes=5,no=6,missing=5
		5:leaf=-0.106298737
		6:[f1<0.5] yes=11,no=12,missing=11
			11:leaf=0.0180740803
			12:leaf=0.106277116
booster[19]:
0:[f0<21.5] yes=1,no=2,missing=1
	1:[f19<0.5] yes=3,no=4,missing=3
		3:[f7<0.5] yes=7,no=8,missing=7
			7:leaf=0.015363493
			8:leaf=-0.0240084007
		4:[f9<0.5] yes=9,no=10,missing=9
			9:leaf=0.0738862008
			10:leaf=0.00230844459
	2:[f0<23.5] yes=5,no=6,missing=5
		5:leaf=0.0887190625
		6:leaf=-0.0140884519
booster[20]:
0:[f0<24.5] yes=1,no=2,missing=1
	1:[f5<0.5] yes=3,no=4,missing=3
		3:[f0<7.5] yes=5,no=6,missing=5
			5:leaf=-0.00205462356
			6:leaf=0.126439765
		4:[f7<0.5] yes=7,no=8,missing=7
			7:leaf=-0.0159536023
			8:leaf=0.00763132935
	2:leaf=0.0664678663
booster[21]:
0:[f0<24.5] yes=1,no=2,missing=1
	1:[f0<1.5] yes=3,no=4,missing=3
		3:[f9<0.5] yes=5,no=6,missing=5
			5:leaf=-0.16352649
			6:leaf=-0.000284980197
		4:[f9<0.5] yes=7,no=8,missing=7
			7:leaf=0.114588119
			8:leaf=0.00113571493
	2:leaf=0.0571056791
booster[22]:
0:[f0<15.5] yes=1,no=2,missing=1
	1:[f0<11.5] yes=3,no=4,missing=3
		3:[f0<10.5] yes=7,no=8,missing=7
			7:leaf=-0.000539577974
			8:leaf=0.045110561
		4:[f7<0.5] yes=9,no=10,missing=9
			9:leaf=0.0224038176
			10:leaf=-0.0886333957
	2:[f1<0.5] yes=5,no=6,missing=5
		5:[f7<0.5] yes=11,no=12,missing=11
			11:leaf=-0.000612856238
			12:leaf=0.168848008
		6:leaf=-0.0881695598
booster[23]:
0:[f0<12.5] yes=1,no=2,missing=1
	1:[f0<11.5] yes=3,no=4,missing=3
		3:[f11<0.5] yes=7,no=8,missing=7
			7:leaf=0.0161499325
			8:leaf=-0.00221959734
		4:[f1<0.5] yes=9,no=10,missing=9
			9:leaf=-0.113675408
			10:leaf=0.052441068
	2:[f11<0.5] yes=5,no=6,missing=5
		5:leaf=-0.0851510912
		6:[f1<0.5] yes=11,no=12,missing=11
			11:leaf=0.00694951555
			12:leaf=0.094864957
booster[24]:
0:[f3<0.5] yes=1,no=2,missing=1
	1:[f9<0.5] yes=3,no=4,missing=3
		3:leaf=0.108097777
		4:[f0<2.5] yes=7,no=8,missing=7
			7:leaf=0.0170681532
			8:leaf=-0.0223879293
	2:[f9<0.5] yes=5,no=6,missing=5
		5:[f0<1.5] yes=9,no=10,missing=9
			9:leaf=-0.1964726
			10:leaf=0.030787291
		6:[f0<3.5] yes=11,no=12,missing=11
			11:leaf=-0.00492629455
			12:leaf=0.016566623
